#include <stdint.h>

#include <math.h>

typedef struct {
    double input_0;
} T_MODEL_INPUT;

typedef struct {
    double output_0;
} T_MODEL_EXECUTION_RESULT;


double sigmoid(double value)
    {
        double x = value >= 0 ? value : value * -1;
        double x2 = x * x;
        double e = 1.0f + x + x2 * 0.555f + x2 * x2 * 0.143f;
        return 1.0f / (1.0f + (value > 0 ? 1.0f / e : e));
    }
double WEIGHTS_LAYER_0[1][30] = {
    { -0.2754047714229132, -0.3291150324714598, 0.21465267538483895, -0.41941673936235935, -0.3373105185921753, 0.39129048827037727, -0.30709959797034514, -0.6611375044848632, -0.4000494229367838, -0.21482498591914198, 0.2644410053190665, 0.6654293641353043, 0.27779552575951433, -0.0054930682816477895, -0.43525841494431794, -0.29072323114987153, -0.12306310628241707, -0.3277539564192378, -0.225339617878359, -0.2321771825411181, 0.34357207711618176, -0.42255952684369075, 0.3752936139754748, 6.416803059201488, 0.17960764569178317, 0.012988167675021273, 0.07757030373836715, 0.2181941226416245, -1.0680331017100517, 0.28265923487311884 }
};
double WEIGHTS_LAYER_1[30][30] = {
    { 0.337562467866465, -7.3129612658516425, -6.486843188778085, -12.520083308732994, -6.942352460709452, -0.10681951139639384, -2.4908974003122344, -1.3730701546243238, -8.850810191020845, -9.044881104803657, 0.18083600260245863, -4.377825340616169, 0.49117447450758506, -8.638862497451244, -5.757763900874584, -5.088160843743148, -6.364094425433991, -5.97602724653428, 0.1153511419657852, -2.184360350821815, -6.055504770280791, -7.490086742320296, -8.687399216120733, -5.677464398581728, -0.11675626890968034, -1.107503242735955, 0.09695016903587603, -2.0319369033270243, -3.8708002578978924, -7.977009995173775 },
    { 0.19780194052153247, 0.08115002412202496, -0.011487087405936413, -0.031743162337730696, -0.06318846996859824, 0.2678226155960869, -0.18289563542377446, 0.2592174198869984, -0.15659989539479385, 0.00400146813076048, -0.029322192244454284, -0.0002934561893981505, 0.17496810715583427, 0.08231498683673626, 0.16399756962776232, 0.18941721618412014, 0.25957214051908734, -0.1850971771602196, -0.13931547534212863, 0.22094141834612793, -0.24755416550035195, -0.11321065546570344, -0.16454801900032853, 0.17988077032678254, 0.2265581591134543, 0.18069780898034937, -0.22997400045692637, -0.3069175627579474, 0.2781983916131042, -0.1844219633338729 },
    { 0.24389818250289533, -0.19078674108334365, -0.18985773480340956, -5.7989113539893635, 1.5691949081967846, -0.07573703545972645, 2.1595547495829086, -0.6620180907468624, -0.22878865248908953, -1.3107934828022902, -0.3419503541784066, 1.3021738137205654, 4.910851692025443, -0.5453667475665197, -0.5486403351736923, -0.17610715962128837, 2.2888893868475213, 0.09994236318836465, -0.648093883703289, -1.4893778938179352, 0.06575407001600152, -0.10343438310981974, -1.3319977633782658, -0.7178005785980476, 0.04416219932328683, 0.644258729783318, -9.632963072313608e-05, 0.7274742174119746, 1.8225537988610807, -0.3648699748387709 },
    { -0.07513577991574813, 0.02875246622117395, -0.30211672736806056, 0.22128247603184228, -0.20649439320554677, 0.09661123420640093, 0.06942126413155576, 0.1003023961174675, 0.09575310141618412, 0.1790499536766456, -0.3030288185724661, 0.23145700212874976, -0.07715314080672901, -0.26281536789595866, 0.18401554392426572, 0.10262455673539841, -0.0006361460141946053, 0.048229625324292244, 0.09255957125739277, -0.055079028281051226, 0.036567692066192536, -0.05933974337165458, -0.04129058921719095, -0.1492134042129293, -0.019226063267970758, -0.21006051986896804, 0.2900488194698879, -0.29463916228601333, 0.048063173919616516, 0.17232976957296578 },
    { 0.24978010993665237, -0.001049176647678661, -0.12902608962375087, -0.1810973772317262, 0.24549197594018352, 0.2970003423554963, -0.022072312074124283, -0.03824020130631377, 0.031744986400454325, 0.0669066548142183, 0.11689429667583309, 0.11396737686633256, -0.30780024357213576, 0.16179043055552766, 0.13031095930102057, -0.28159945510258927, -0.2467416260730916, 0.05124138774361869, 0.27725570159622237, 0.09776470060445848, 0.07323206064385378, -0.1443913064214989, 0.29489955624341596, -0.22983086205432773, -0.060491321513750716, -0.23749912477075946, 0.0942244166206739, 0.09108009082323497, -0.26164945036595455, -0.0674917805103277 },
    { -0.015170498394950348, -0.10650352310927302, -0.1591771336868143, -5.990177539946952, 1.2774472846139135, 0.3069962554007879, 2.0784882225877284, -0.47868461631391596, -0.17449413489559296, -1.2094345989083053, -0.13370657726940216, 1.6563748547039885, 4.738474940927693, -0.5528497751036986, -0.515140783237074, -0.08261469541443557, 2.5665309253486277, -0.46524570469509224, -0.7279569553919844, -0.9300483950208588, -0.09488697414636886, -0.4353851871759451, -1.0240546719923123, -0.39167370329387924, 0.4689471817316113, 1.140962306593583, 0.38171350155497513, 0.6859454291901836, 2.133535181475, -0.8084081831154507 },
    { -0.2700234881251956, -0.2155646508222389, -0.29792655532550394, -0.06991133402456878, -0.29133556283158, -0.132002511581063, -0.11008964185617824, 0.3026820529801949, 0.07195176861065751, -0.22885342449155646, 0.2543348338474818, 0.09730849637571273, 0.09580470418370785, -0.062373425751874434, 0.2929046627348068, 0.12472553583372346, -0.1040230062236916, 0.1280987988330504, -0.02272016590058982, 0.060889170399905414, -0.03183464767122139, 0.24986228329806096, -0.2908371468862202, 0.2027394040240544, -0.23212135727750333, 0.07612521028344738, 0.259809845794654, -0.21438488736666333, -0.08582114756953227, 0.303003329589891 },
    { -0.03337946474042691, -0.1366567541495771, -0.25535052724898144, -5.9119213728341755, 1.5302035838632906, 0.07440524868483893, 2.249430438187801, -0.3718876113363931, -0.17403366016281624, -1.6255300103429446, -0.3103764022380672, 1.561571798824319, 4.874301500785532, -0.6364414553029552, -0.8784846375962226, 0.14599661289628102, 2.252683210079279, 0.08693466527287869, -0.6203589682544642, -1.3784962492256538, -0.05364691628136862, -0.03847600188980001, -1.1021425066370065, -0.4460716292242245, 0.0053594518108428905, 0.5943861908428217, 0.05634072038979067, 0.8569430482407162, 2.0427048139099684, -0.771267936762435 },
    { -0.18430404696586433, 0.26307630237161095, 0.07599863728880021, -0.21292275732810234, 0.18686252207861034, 0.288951637712325, -0.21049123051754604, -0.23725812155801687, -0.08604453693384913, 0.04301060821855382, 0.2664731826436763, -0.04999036996374541, -0.019164388452498408, -0.04961509857004415, -0.1444617118108832, -0.1861930245809656, -0.2684199216919521, 0.09304699001273345, -0.03135512280874455, 0.03211393890317704, -0.09369948916719026, 0.12175658909291547, 0.2917230822831807, -0.25755909466585625, 0.041202238168880884, -0.25230659712364134, -0.04757932035222282, 0.05517008719784352, 0.10721381802858918, 0.0030724551032597944 },
    { -0.29678050800678857, -0.13750546293506374, -0.1423886128259974, -0.05803075656339291, 0.18586501859020993, -0.13977947997942836, -0.1729722440306612, -0.211169557688198, 0.11552994757774979, 0.2800279062396868, -0.049597631575836326, -0.24240333681795276, -0.1943908215975962, 0.04917117510058938, -0.07641174190355016, 0.03806251883654628, -0.27484644859139906, -0.10081152104006792, -0.2159737047780273, -0.08298272905231342, 0.07887337301132542, 0.12664811246630364, 0.061024436164979705, -0.2455242581023413, 0.1245501628738502, 0.11328545207386012, -0.23703693091416286, -0.2645569127064085, 0.12816805072507287, -0.039059746577677114 },
    { -0.2338555431363815, 0.14938212939891382, -0.05173152166614689, -5.722097170837856, 1.4575031705526873, -0.20718592315578163, 1.8579249868270287, -0.7309012426770842, -0.05724987106018145, -1.423457783936122, -0.13551060359770167, 1.5956134736538399, 4.604846152632405, -1.0520213682399822, -0.32478397222859445, 0.0010971474789456476, 2.102180263300657, 0.03580396313147301, -0.6696429794306343, -1.1747204339930468, -0.03928654890622012, 0.09234377306320479, -1.4203299531332079, -0.7407387926744606, 0.14345383306205034, 1.1273699191746414, 0.21886929975295755, 0.6782405807685831, 1.5439995847578765, -0.5165708906578086 },
    { -0.08227551442415655, -0.3040267840137426, -0.3150067386268991, -5.860648791364763, 1.5675577725923777, -0.0853501969048311, 2.1283216845036237, -0.448207989772334, -0.17423266430039872, -1.4577794615359125, -0.317990138626101, 1.7283515410946595, 4.501867813700577, -0.5798888855182736, -0.7901315611338908, -0.0964423197928827, 2.2619971680516127, -0.16919067112948166, -0.5256920320691281, -1.4668104286793002, 0.212488108632285, -0.0796559711223156, -1.1463983270848113, -0.37423160683143936, 0.48319129258851945, 0.6937379936809038, -0.010005605001607354, 0.9096860479915977, 2.111085234182666, -0.5824796035006773 },
    { 0.1998685544746392, 0.2518575883065025, -0.23215441372774243, -6.278702541416244, 1.4161951918741265, -0.03656805510491058, 2.074689686893222, -0.4640758767455311, -0.43825572211656444, -1.3456445774342232, -0.4238935729522343, 1.2581031163104819, 4.962501686551915, -0.9263033220660275, -0.6380543999493445, 0.3998063129809665, 2.5735537147924012, -0.015601809927199409, -0.8455809624976524, -1.1196557608383657, 0.26972198646238393, 0.09869185007156711, -0.9600963860438404, -0.28130820383753935, 0.5650025779697376, 0.8267670572269815, 0.3173337079179453, 0.6654877959515217, 1.553535079210345, -0.8178615154277251 },
    { -0.12203570531517097, 5.742401809511217, 5.293002117462622, 5.252128002124269, 6.086789100463517, -0.1860906265145241, 3.5835887649674745, 0.48883648239757677, 6.687859483977517, 5.7371783477152, -0.20648611333558559, 4.775340131577209, 3.5908271626658625, 6.490966188748693, 4.246323877971003, 4.107212399819887, 6.901270608617604, 4.462256458505326, -0.8617497326718825, 0.8371594195622702, 4.607244346535568, 6.132111849989012, 5.766422427649947, 4.25539692332333, 0.20255925881588882, 1.456087625930099, 0.24069044169125364, 2.538565334528044, 4.404978137715059, 5.890343750957538 },
    { -0.12028696278313966, -0.131692423464569, -0.10711078903751566, -0.24067441388196595, -0.08823435476184534, -0.15531451232824384, -0.058819246709670724, -0.2735164479372729, 0.037368613052646944, -0.10489092290499802, -0.24026625970325113, -0.08297319074944638, -0.1870486440106874, 0.08938335575142733, -0.08321101145802813, 0.11634402886376607, -0.10570755502508115, 0.1828682678063406, 0.09284916267435472, -0.2757314955123372, 0.1237588577086203, 0.21456691290507993, 0.2042670799435974, -0.2575691047443143, -0.021438305901790272, 0.1855847771305773, 0.18373477997391535, 0.1602710348178188, -0.19416689063145517, -0.2562632474092864 },
    { -0.08245027372733331, -0.23930964180644004, -0.0050175454914495165, 0.044196374087289575, -0.23271988865820806, 0.16698452849984952, 0.02085864542795717, 0.0612208951899063, -0.20506185647439293, -0.31323656228681945, -0.034608374809226294, 0.2905334029239179, -0.039294304579345865, -0.12036043226252818, -0.08951722502652523, -0.1566062136630385, -0.3007228112979064, -0.2198122420157281, 0.30817968330783524, -0.23411464345758837, 0.23119229875502964, -0.2036767227112608, -0.16681267883334383, 0.15554937440166192, 0.3124945107997706, -0.2718028827140924, -0.22147358823015378, 0.17908569647291323, -0.20868747687394604, -0.1625190241035985 },
    { -0.19496732266359496, -0.29399198922691283, 0.137742879489563, 0.29616693530650895, 0.25413031778210415, 0.09955320902301738, 0.21283010909795952, 0.06902169546192918, -0.16609317792614386, 0.1993638334251146, 0.17347120485427064, 0.17399439427354726, 0.1524804245336789, 0.09530780404513371, 0.2460040049407885, 0.05229292141235232, -0.19076391065359963, -0.08279778190053766, 0.02831209302390144, 0.2753885080974273, 0.2509296656291513, 0.25630428526923255, -0.20448641890337824, 0.025033501488083518, -0.15073718246988674, -0.15632899106206535, 0.11690630455449397, 0.1921382156915447, 0.07835788416697582, 0.07158701838800838 },
    { 0.00846161297607202, -0.018035342281903805, 0.047342553176295016, -0.002021045714029218, -0.26905687103623716, -0.06960714054236272, -0.2564166546516821, 0.2675099987769255, 0.1571624206405724, 0.07671800373968898, -0.1655496349169446, -0.27138565150014304, -0.017598730220335757, -0.20049238126559063, -0.1520886982397689, 0.24361679980510165, -0.03048171857785434, -0.011782695484967824, -0.10944068619398441, 0.24022101920160555, -0.12921292126502704, -0.17506090252795015, 0.22832464245534717, 0.15804451383844986, -0.3137865416629865, 0.015350851826274173, -0.12053328922582716, 0.10079564180908979, -0.11196404391276985, 0.057410401424443855 },
    { 0.2615898701430047, -0.11020094101052708, 0.1674207344578473, -0.30702637105942554, 0.23363063345217855, -0.09552160177348105, 0.2620687349887608, 0.21868260183255778, 0.04983144777519555, 0.26087077680006443, -0.13725085180577573, 0.007358524231962194, 0.12109863591335272, -0.2789564247766391, -0.19553926097485172, -0.02382650608528316, -0.19750156789034418, 0.021996396728009314, 0.14607511770267934, -0.04199812597784881, -0.2736567933813773, -0.22575511150859023, -0.07814448735584034, -0.2810774283138381, 0.2460164724845362, 0.048950485136369015, 0.17843060556968454, 0.22293234438524825, 0.3051285080086805, -0.23438009657152165 },
    { 0.15831577436307653, -0.06343606853188197, -0.1729871989349839, -0.17811333970306809, -0.11471612838049991, 0.05448880813937108, 0.013201359650055623, 0.12608153172930514, -0.23622453004311514, 0.2755743761760511, 0.31211662717411953, 0.12643870776487764, 0.010118907298860854, -0.11557018909199708, -0.15052171533427, 0.1655506385276311, -0.2037223293469691, -0.008873893878220322, 0.10287102356196406, 0.26518293064647397, 0.193238737327019, -0.2698256372958897, -0.286979395963696, 0.07585621887975867, -0.018823008700120755, -0.1227525209839972, -0.11532788711244657, -0.12581564447090957, 0.07197954926584914, -0.02172306399719782 },
    { -0.2908717297313976, -0.008207759295129903, 0.1542855999110719, -5.796979046675546, 1.4934245854922565, 0.26869418033493264, 1.9705646328233237, -0.5831926806312415, -0.16297075182183737, -1.523234457805955, -0.12374781955853767, 1.2597120543476508, 4.68816037999412, -0.9299233695812474, -0.3874053052104591, -0.1540695879213036, 2.701520736381259, 0.10055337045530915, -0.609404339143995, -1.4549502550865472, -0.10095679300959878, 0.03985851947299582, -0.864043362160188, -0.31072381801496135, 0.022311533687090764, 0.7517736879105946, 0.36368718776382236, 0.8775678209298486, 2.1235406405855217, -0.40418933299348275 },
    { 0.13388651782745495, 0.27001656024770315, 0.11331876054702797, 0.04511499686129671, -0.2483101139231882, 0.05050227887091054, -0.02135513634592019, -0.2717448013553112, 0.21161254153165737, -0.2609389483421113, 0.2380860201652711, -0.018349507517963784, -0.052189880811983294, -0.13649509628807996, 0.18562393218275197, -0.245947950531663, 0.10500044044304319, 0.3030394120603863, 0.1033686057992409, -0.07285592089652808, 0.04230767650550256, 0.07855208103766934, 0.0067754934002473965, 0.3141052816049884, 0.1314273374412443, -0.26290644746720276, -0.09926250561780156, -0.23631181782055496, -0.24825085957310766, 0.09040095598566253 },
    { -0.3364615315761282, 0.11345392891146411, -0.11987017253276085, -5.774018841501208, 1.6647656361026404, -0.09339859234835256, 1.8556590619956648, -0.6736166307216044, -0.03396682063734701, -1.1399406310697107, -0.48929414321775505, 1.740865316311736, 4.956914408510083, -1.0672010070886722, -0.44617354778215645, 0.09622097575910757, 2.669577809986954, -0.3484410062559955, -0.9665399855027351, -1.470883209776341, -0.009930940383560193, -0.3508500577611695, -1.201892948983088, -0.747077021629993, 0.31489760440030334, 0.6281234215580274, 0.3132529355860056, 0.5896085884436351, 1.889934423256522, -0.8180035910110425 },
    { 0.23660114309541813, 0.14938228181925842, -0.20779986222914876, -5.735195766046735, 1.734759559089154, -0.04372444615339199, 2.100751299027791, -0.4840216296043679, 0.0656852185676562, -1.0764271620700114, -0.345663265641452, 1.7951714250583208, 4.571316441031116, -0.9309877783892764, -0.65381789898032, 0.14540508159176332, 2.7107943196746516, -0.34194687979620164, -0.9492033898866558, -1.50833622199551, 0.013388812302708468, -0.009883183546543474, -0.759104368179353, -0.7060625778353686, 0.5866412598710172, 0.772086595071953, 0.0806497239298834, 0.6039401913241822, 1.8738494799278758, -0.8114694476420615 },
    { -0.13172659618339963, -0.0693179918129293, -0.2719572903783936, -6.310107592368845, 1.1311530818507352, -0.1279614639626262, 1.7507579475884012, -0.15877418962921755, -0.46662207763820235, -1.6694943507539863, -0.09842780163622059, 1.4033445302198926, 4.630261655973809, -0.620951107619476, -0.7531021938899222, -0.13500653536216198, 2.4931865308314594, -0.13925884481794482, -0.8156499423984679, -0.931738482712298, -0.2472357360225982, -0.3666626475571682, -1.3934164281828312, -0.2852251751463203, 0.3746547632963006, 0.9616198099799005, 0.042534467057831954, 0.6238619506033543, 1.8076197769892757, -0.7282469870018767 },
    { 1.5520150677203652, -27.10244335820097, -24.47086780421739, -31.62982492459383, -29.53153703259056, 0.08271623374977612, -14.784702530076373, -3.733062266465961, -32.993230066777556, -29.791949938177286, 1.7939234739528318, -20.05366064031926, -11.705375642440531, -31.28955865602394, -20.52607681368768, -19.051390201372428, -30.807895813866146, -21.56257619072662, 2.1686291298201885, -5.820120083127815, -22.22763712095103, -28.80972449426647, -29.650032327714552, -20.483413763763586, -1.1488532821442705, -5.141183014141806, -0.8324051972742553, -10.361972158772824, -19.680288005339794, -29.07187595931584 },
    { -0.3743004344992441, -0.09558114255898816, -0.087262180671409, -5.975164691139453, 1.4468997284340963, -0.004325873877352314, 2.1209077621728514, -0.5502798831659208, -0.44879604021401437, -1.0162264844170679, -0.2624193906281912, 1.7278045129730508, 4.79089847491795, -0.7856896594152835, -0.9531772967394342, 0.20351336717179994, 2.2113639539896806, -0.06284943603336561, -0.787590520078909, -1.4033067547127545, 0.20099724448352468, -0.4356163437017391, -0.8953717021724172, -0.09325695905820923, 0.4252241919937936, 0.8484625448573876, -0.1320053244713643, 0.9937260687593896, 1.9297254308086789, -0.4360119427614908 },
    { -0.2223625659783952, -0.22447636738211707, -0.27278254429446447, -5.735007870600761, 1.6250643342115692, 0.31463363279687656, 1.9994558291592563, -0.250208564225854, -0.026792085405044817, -1.2188033234399234, -0.32604706378813003, 1.6230960743539244, 4.91298991019211, -0.9960556562263854, -0.6597764354156631, 0.18702590556293977, 2.1413458363954407, -0.03899434667338481, -0.9397722400359376, -1.521109085268991, 0.13288036447294158, -0.03282119069955672, -0.9132784456668768, -0.17991818629690054, 0.5576240398743316, 0.8356945463038564, 0.2776414897216339, 0.8425412953569502, 1.857726899725875, -0.3491445439319986 },
    { -0.4039895467177109, 0.04789965096103264, 0.20814554374398753, -6.105937391210671, 1.4210921083529824, -0.1445391715251794, 2.239330356356231, -0.7930172849227479, -0.6450227892367604, -1.5094451498984591, -0.4532137589228913, 1.4306278573295423, 4.930978819797224, -0.8079935670584366, -0.9249068630738568, 0.3070319396885397, 2.332562878164754, -0.5011037646841656, -0.7269387937104366, -1.4096580821237688, -0.18348328792176782, -0.4057312519831881, -1.0401780378293732, -0.42919629853594743, 0.18211928210860237, 0.6363163277304433, 0.41903634607748474, 0.6363443663196512, 1.9463171273061284, -0.735194983532706 },
    { -0.3327450268753057, -0.10515679973230724, 0.04506295563347018, -6.18017059799258, 1.2643757350881606, 0.027947240521130297, 1.8428588458002169, -0.580926151416972, -0.27820055388878356, -1.167694085243953, -0.10386649817835972, 1.4755765180560823, 4.936319539071483, -0.8587081083621964, -0.5223467439603314, 0.44790572004050094, 2.1559605659365895, -0.3741498221820013, -0.8261074640957082, -1.1276097818665638, -0.1957852190829107, -0.2535223263295816, -0.8896087782611002, -0.15914704043484335, 0.18525311726755764, 0.6056015047342685, 0.12197942203141526, 0.6789890818094003, 2.031687881818442, -0.5111629590067429 }
};
double WEIGHTS_LAYER_2[30][1] = {
    { 1.0582144881157733 },
    { 10.646999318172865 },
    { 1.788423262299336 },
    { 8.323957689272452 },
    { -6.833355672520838 },
    { 5.415496215573246 },
    { -4.763408135958088 },
    { -7.441288184152149 },
    { -2.711837920707303 },
    { 2.232720094037567 },
    { 3.130873626317251 },
    { 15.4350105988408 },
    { -7.381529535482052 },
    { 1.318633671908039 },
    { -4.982449180642362 },
    { 2.427820742151058 },
    { -8.378398513602658 },
    { -1.245104487245147 },
    { 4.876019699137349 },
    { -11.644110001264648 },
    { 4.076325164986045 },
    { -7.7865900400125785 },
    { 3.0984296107365537 },
    { -2.039530763824849 },
    { 11.313606509446315 },
    { 9.000966243900324 },
    { 4.179211150051089 },
    { -3.224974907910315 },
    { -5.178913120455242 },
    { 8.686207256470313 }
};
double BIAS_LAYER_0[30] = {
    -2.163581253001705, -0.39233926710819295, -0.3281434575993514, -0.07042199864181879, 0.06822255760992041, -0.3793283931340374, -0.24393114124807638, -0.21718950462036446, -0.37025046943930423, -0.28685238969362137, 0.20633812654429778, 0.25459692081248214, 0.2402379087064109, 1.5654751811257015, -0.2789933799410544, -0.026409986485570452, -0.4400868987420403, 0.20067225600097538, 0.2904462905274912, 0.24339164969318938, 0.20127051128499798, -0.40498580375300597, -0.22165770744628954, -0.00030712273876175354, -0.3271447913554346, -4.230235849278096, 0.3829652013717743, -0.40425026467005354, 0.022410230764082373, 0.4272619624684243
};
double BIAS_LAYER_1[30] = {
    -0.03394434965821748, -0.11211124410627889, -0.012348337375160794, -6.106634914398075, 1.1513768302188152, -0.05130804018091029, 2.2258675708076097, -0.6546640668280854, -0.6448345285234293, -1.5242306788741768, 0.06022721250316793, 1.3333842272934888, 4.485971454777018, -0.9309207466636183, -0.447154224977847, 0.28023960717981183, 2.317369860904871, -0.467641806919823, -0.4657139674409246, -1.4440815030469447, -0.1973552798373041, -0.05981216250831364, -1.3445325598060092, -0.19023849650041055, 0.43563531870732, 0.9080077289060672, -0.047250338305087, 0.32683790756230746, 2.030499639692138, -0.9310096193979974
};
double BIAS_LAYER_2[1] = {
    -3.0451938474457716
};
T_MODEL_EXECUTION_RESULT calculate_model_up(T_MODEL_INPUT input) {
    double intermediate_result_0[] = { input.input_0 };
    double intermediate_result_1[30];
    for (int i = 0; i < 30; i++) {
        double sum = 0;
        for (int j = 0; j < 1; j++) {
            sum += WEIGHTS_LAYER_0[j][i] * intermediate_result_0[j];
        }
        intermediate_result_1[i] = sigmoid(sum + BIAS_LAYER_0[i]);
    }
    double intermediate_result_2[30];
    for (int i = 0; i < 30; i++) {
        double sum = 0;
        for (int j = 0; j < 30; j++) {
            sum += WEIGHTS_LAYER_1[j][i] * intermediate_result_1[j];
        }
        intermediate_result_2[i] = sigmoid(sum + BIAS_LAYER_1[i]);
    }
    double intermediate_result_3[1];
    for (int i = 0; i < 1; i++) {
        double sum = 0;
        for (int j = 0; j < 30; j++) {
            sum += WEIGHTS_LAYER_2[j][i] * intermediate_result_2[j];
        }
        intermediate_result_3[i] = (sum + BIAS_LAYER_2[i]);
    }
    T_MODEL_EXECUTION_RESULT result;
    result.output_0 = intermediate_result_3[0];
    return result;
}
