#include <stdint.h>

#include <math.h>

typedef struct {
    double input_0;
} T_MODEL_INPUT;

typedef struct {
    double output_0;
} T_MODEL_EXECUTION_RESULT;


static double sigmoid(double value)
    {
        double x = value >= 0 ? value : value * -1;
        double x2 = x * x;
        double e = 1.0f + x + x2 * 0.555f + x2 * x2 * 0.143f;
        return 1.0f / (1.0f + (value > 0 ? 1.0f / e : e));
    }
static double WEIGHTS_LAYER_0[1][30] = {
    { -0.36270512599944854, 0.491249656170014, 0.03885817464318688, -0.30132555317568016, 0.4560933054324676, -0.38440559297250104, 3.771345696238848, -0.7891288573097404, 1.7478138412530928, -1.1178287071757356, 5.012386067866381, 0.2920371691544966, 0.3207212626479495, -0.33625439341640584, 0.24797747819268487, 0.4235353922363987, -0.26543863336528345, -0.3328575890186171, -0.41549702565264407, 0.3272406579305994, 0.3629138163459225, -0.2576372588225793, 1.1364699224260935, -0.36958098159607466, -0.004644810273275095, -4.012311876350452, -0.40723315279454964, -0.23356713046591307, -0.27587979785990246, -0.34877526693522903 }
};
static double WEIGHTS_LAYER_1[30][30] = {
    { 0.21919070428140117, 0.26203145895667207, -0.12972032814780857, 0.3022456788097177, 0.28836124364601756, -0.27582437583818825, -0.005463290316843277, -0.27689137269114594, 0.14655136076446634, 0.18264983318681982, 0.28682371639535414, 0.14315218203264649, -0.2673333173542569, -0.1911314654654392, 0.07589866013592897, 0.08811904435712273, 0.06406636079186205, -0.1968614221241921, -0.19020241601910187, 0.23347976334207948, 0.07178021679608285, 0.183752295974341, 0.23168374892349777, -0.27749558675833563, -0.25207167462804114, -0.08199175358017559, 0.022923815046495502, 0.2562845990734976, 0.07077722082767023, -0.06827989386510472 },
    { 0.21598922284648592, -0.0934692807844725, 0.11396935062696109, -0.26936188986862813, 0.3841913561477512, 0.40842013763807217, -0.18259307133084723, 0.23402537379281893, 0.3446820437480331, 0.09559850673714537, 0.27585754848160576, -0.1390450509258553, 0.19042290634215292, -0.175099601321147, -0.18885278956604842, 0.3090173176438462, 0.11479067084187392, 0.40777513307708574, 0.3846278821412695, 0.1337581676147955, -0.1327305350413114, 0.6580347245893396, -0.048555129764932384, -0.09438336727600324, -0.10390626870739378, 0.3201119559324854, -0.15298355709401423, 0.02737849621163416, 0.15326194484299224, 0.33603151566705364 },
    { -1.2452477145288712, -1.2931190462184246, -1.7723801029233395, -1.012151703746582, -0.9672841099338535, -1.0645454784788442, -1.2633138776298154, -1.2331713453809907, -0.9401971604126211, -0.21270537292150424, -0.2428871278120754, -0.6079755264768172, -0.2895317130970868, -0.5640658858897233, -1.2731317794834078, -0.8295892907808579, -2.233159527550105, -1.0526583110237113, -1.611163978724624, -1.1690050897638353, -0.46655557793719843, -0.762721322850345, -1.0689094389184468, -1.376579546841552, 0.11726310366873609, -1.4888740291630183, 0.254713310498592, -1.448290413456612, -0.7374266764663946, -0.5646427472690172 },
    { -0.02949356619669565, 0.3132218797315191, 0.1706327884867691, 0.21774530939053427, -0.19002580553069126, 0.06734743959363462, -0.1419907130773433, -0.14593648662160089, -0.03746470316820248, -0.2946759007984095, 0.06059496442462421, 0.04940259934395196, -0.27877834192324963, -0.22612066521185503, 0.01315507498003242, 0.05340357555992933, 0.01745075830793223, -0.08615697573668228, 0.18984703442566606, 0.20257859469354772, 0.17947679266944933, -0.060595574916705496, 0.25384936266980646, -0.09791322743779216, -0.3012615935262804, -0.21867331321304986, -0.03168581354261921, 0.31072021573950487, 0.23542890600328, 0.027157514545927255 },
    { 0.08437632532702855, 0.14238919465808147, -0.11784217143795075, -0.14732193878346142, 0.27350658663671557, 0.16190531689195634, 0.2596338551910776, -0.12578351170088986, -0.04901471126075548, 0.2944545636183328, -0.06447261567808568, 0.22619055952931932, -0.07806344591672926, 0.3531169518219312, 0.3095269560780127, 0.2781017905730831, 0.3144808957203879, 0.07799178169419393, 0.28064793573512703, 0.23781361832290362, 0.10394976241516118, 0.6423479997342204, 0.27880766879076146, -0.10755492437274519, 0.24038810606369582, -0.045483961519518494, -0.18036164359922793, 0.4025081333832679, -0.10663887032783492, 0.3642136881695076 },
    { -0.3018879573739052, -0.13768826501458317, 0.1536305588441973, 0.08470909430414329, 0.2679139257157185, 0.16656974526556015, -0.19545250660430963, -0.21430143933976897, 0.16699594737402781, -0.29729383662879877, -0.16031341633306453, 0.2978296724239728, -0.012717327007635004, 0.10389015394718214, -0.0028678626359107126, 0.048516511142741185, -0.04805268501937358, 0.23992079958076495, 0.2648393509024395, -0.21203295400494876, 0.14614104861372562, 0.21237216882211424, -0.12876429056140434, 0.23891849280754815, 0.20430764432259932, -0.14054980308027473, 0.030889924895022194, 0.23081815515785778, -0.2386611356981847, -0.27230553151992326 },
    { 0.25295698864644106, -0.05720456857698131, -0.22764539379938953, 0.19816098605465796, -0.030836612005281296, 0.16478650691099098, 0.29480697224657504, 0.268975428542728, -0.23052639181790624, 0.36798246966327103, 0.08922690348844743, -0.27866863742614956, -0.16792957126231114, 0.19867964046887207, 0.3809126724602664, 0.2503680671249007, -0.0029351273525986335, 0.3567823492992476, 0.06694252734520391, -0.0737872463647204, -0.22390297913586543, 0.05353936610315999, 0.13917004529787294, 0.44436740704491456, -0.33645719827469994, 0.04437665794646288, -0.25388657031696743, -0.018378138287672083, 0.360863543616633, 0.40411607461034854 },
    { 0.19466934464017183, 0.0654396306430246, -0.2018131138452696, -0.2504033800016717, -0.14390331052973168, 0.22513411980226944, -0.21269644745031613, -0.006885600364573841, 0.30363138357757397, -0.11220992647501109, 0.15366565432890533, 0.0493218948229761, -0.31606281023346333, -0.2727808507274538, -0.2303698489175121, -0.2256481750842002, -0.1644252617020305, 0.05203190326316422, -0.2999268283219004, 0.05414144619282841, -0.057402670200598846, 0.09311016588503634, 0.2170337377099649, -0.26577993357179086, -0.2529345314658627, 0.012373335907628328, 0.02757338116238088, 0.2690618027903279, -0.07269374722369656, -0.08361309232405854 },
    { -0.005843488510380435, 0.03609222222344695, 0.02256114432392027, -0.20138554119193694, -0.19775900739521124, 0.3150168680566272, -0.11389352130940253, 0.21340791733614964, 0.13700603416536292, 0.3020641603025407, -0.19132990616299503, 0.24619398923003305, -0.32058408568326313, 0.009366755924070682, -0.06604486224345217, 0.22099383523984256, 0.25303919008155207, 0.1825714895272006, 0.04675660815136205, -0.11211406755583661, 0.18550230621075436, 0.2767994663594662, 0.04611873039410269, 0.2021296200235818, -0.029776076033837917, 0.12054755795228488, -0.23528926125110228, 0.17461532615729314, 0.3751626619051278, 0.17268955426988875 },
    { -0.08396123133937868, -0.08906853379982159, 0.08093221015805958, -0.21275855022186563, 0.06137665226848605, -0.2810665790127186, 0.28211594902500564, -0.008546960632716247, 0.12802909408792804, -0.22271594181655366, -0.11633411290590037, 0.25493364061152757, -0.227637465221636, -0.03794276962169475, 0.02986243085237895, -0.0009734856173691827, -0.11035072867904644, 0.14059707610643113, -0.10318598729225015, 0.2277554070012903, -0.1820018928245351, -0.03069127177924901, -0.10239571015097762, -0.28998105379329764, -0.09246344766487317, -0.11085223715237114, 0.07481370460102928, 0.010482700153150337, -0.2322149123687591, -0.24225682368319873 },
    { -0.1161819400850528, -0.08279532765116866, 0.05592068931326545, -0.05265131218950086, 0.22827341518651234, 0.21924244935695664, -0.04430678817363259, 0.005301799416270815, -0.17844467114227558, 0.4033195568852336, 0.23295444177702318, 0.12151554261308653, -0.2176291439232273, 0.37336298182458866, -0.010871000517201995, 0.367823080964974, -0.32175748867953696, -0.10526764505715788, 0.06261844261151155, 0.132139806319293, 0.09106183849812036, 0.5974632973772568, 0.11945132482772175, 0.3164290580371847, 0.014730363807308642, 0.07100818964755037, -0.0434838509418506, 0.11176171793603726, 0.0023301386100819752, 0.5003332745603597 },
    { -0.14173301711249978, -0.02683685927846002, -0.3510865406760251, -0.12951540519342775, 0.09669185476722099, 0.013338307529375702, -0.02759085500446397, 0.006043256896490834, 0.29417936223332236, 0.3768092184156973, -0.04072533382630951, -0.08956279346721428, 0.04568390916385298, -0.07012536225939849, -0.0034726207326037516, -0.10219362641535375, -0.24965496117198746, 0.3578272144214491, -0.14938076620983093, 0.14168665155950322, 0.15024551248178036, 0.5049786696454885, 0.33620675482599355, 0.2806501938422069, -0.19764951217009047, -0.13294990059609438, 0.10519194119850582, -0.08010601439682091, -0.19953672187884422, 0.4343962330165225 },
    { 0.0629606833089214, -0.05686446679507042, -0.28568498987181024, -0.00781611965628609, 0.10384859194681659, -0.09383392482504777, -0.23726891833726596, 0.27823973244232475, -0.06778405596274138, 0.1739822677057115, -0.07413574052705862, 0.07296491440534741, -0.26375609065996003, 0.3010879504534387, -0.22621530531333567, 0.11893937891717403, 0.06677208008041899, -0.12366087397486711, 0.24726807210196866, 0.14056989239574993, -0.23225384275133323, 0.20430719922966575, 0.16325782066106087, -0.04599791946514362, -0.05091984643439136, 0.305056918999531, 0.1006355828085016, 0.11371320793408476, 0.3811372430762536, 0.40723574184696704 },
    { -0.061144050763453556, 0.20085768201638834, 0.1713409038535018, 0.22174920477176244, 0.1853542027245199, -0.1921582030628681, 0.21999915323353886, -0.2980373675899753, -0.03175039965697861, -0.14423385066303138, -0.2294897239090186, -0.2663235224989909, 0.3084024759911268, -0.20112399378222934, 0.2102299154374136, 0.19406841402257677, -0.14240991806251593, -0.2833803078272693, -0.1237825523492795, -0.29317558420915435, 0.010492147805573, 0.21510402952685334, 0.2101714021206365, 0.0028648245299190064, 0.1623009891268812, -0.252535015792127, -0.28664285254585165, 0.017048841666907018, -0.1927563959580303, -0.25172320510822427 },
    { 0.2457499802721798, 0.09578109013205456, -0.10650390122187264, 0.19972838610926075, -0.08971392983182852, 0.025128289023459014, -0.11099908931724616, 0.2472241355557545, 0.07966126420430589, -0.08272450707646908, -0.1712024961980583, -0.08104233013065125, -0.20624669500422144, 0.3781107206783708, 0.0800879601383239, 0.23551459666145327, -0.25920456434233696, 0.04952175524303218, -0.15469833139245937, 0.06112874714747455, 0.039317276003168616, 0.08411293065643743, -0.23491488855509585, -0.06348762799705669, 0.0752325284026618, -0.02148954614978141, -0.23116976954596502, 0.2746518285402814, 0.1985548036568744, 0.3347959526666377 },
    { -0.14429255660032048, 0.16717062907335345, 0.1623694116412054, -0.25149251567204844, 0.13250789744018834, 0.24060010764086776, 0.021679568412381726, -0.10119622994770033, 0.05369484436372326, 0.32393622180306914, -0.30122030479044454, -0.2303965775074846, 0.2756643780791004, 0.40422584457387867, -0.2068166979923924, -0.15779225033847982, 0.0005646451420280398, 0.37467094482069635, 0.3004800795326023, -0.0776278947662028, -0.008626209021127613, 0.2241951543351485, -0.10075717893291117, 0.23587677178042948, -0.25880084808619863, 0.1457738697775678, -0.20916969801831214, -0.02590361311238869, 0.04308184465577656, 0.1186954803447593 },
    { -0.09384179377486634, -0.23317483332932323, 0.019554489167200054, -0.2621411653117744, -0.0370858630520078, -0.047141845277647476, -0.23244975051745187, 0.22213880414332832, -0.20960526429065154, 0.17578496947038305, -0.08996900934051817, 0.09959933418161088, 0.12729738935660045, -0.11344000150379428, -0.06802141905097313, 0.13243031700818908, 0.3815735585602559, 0.24502357135175387, -0.23290744965650004, 0.18021554653757102, -0.11240204166744698, -0.16241629790217685, -0.03879662061788256, -0.0007291338202187146, -0.08683151513801227, 0.11308993173824809, -0.17351308719881364, 0.2254100044000306, 0.19861325453156475, -0.10067169503270006 },
    { 0.19433966937832478, 0.1877671257690974, -0.2684430515999635, -0.04097223376285309, -0.153006724566115, 0.2849399588383379, -0.19208059172755923, -0.07727550329217395, -0.03715617209487437, -0.12731222953092539, 0.06559232814411015, -0.0860287498515292, 0.07579592262942357, -0.31531897891873784, 0.10999340616636123, -0.31166279536824254, 0.2700535114673907, -0.017856886398851964, -0.09265313793800474, 0.1057074415483142, -0.0590743256616436, 0.18136356973373408, 0.07084985341306989, 0.1959412817305949, -0.1850545609352404, 0.041280151921417756, 0.11070436911727508, 0.2868762665129802, 0.09886346689108376, 0.2850901753631256 },
    { 0.23151406901485946, 0.2600782431556495, 0.243758590798991, -0.2377884322078234, 0.08461870105168945, -0.2682681475762324, -0.18695753425337253, -0.08092729294077264, -0.04823473206548014, 0.1950027924285185, 0.168750446035952, -0.013611342120766277, 0.2571759662277106, -0.1441766741852421, 0.02474266864250022, 0.10536734866903676, 0.03243083365883908, 0.26592383224959026, -0.10934480116330043, 0.015212834520999908, 0.04937933248241879, -0.310282796300474, 0.1649761806229492, -0.19080361473082966, -0.2937192378144897, -0.23842049123235887, 0.21464548452113502, -0.31136588791089853, -0.19066915994637124, 0.019330582417587377 },
    { 0.2210657010053517, -0.09852480942391352, 0.24451309595377083, -0.2527717056334918, 0.020044709389438337, 0.09612207979206311, 0.12820458942549534, 0.013765880653133524, 0.022887465627374228, -0.06169434516486629, -0.13104133931252337, 0.147813872039662, -0.1354304463186369, 0.2584072597512216, 0.18046115952608133, -0.18806087700274665, -0.12388472303843538, 0.1672554931155005, -0.09245433919163762, 0.16175617908811268, 0.21834798687853144, 0.1902121966128925, 0.1554736848580474, -0.16786138146790838, -0.3083472233295366, 0.1519010344071697, 0.00881454499597306, -0.2425090677021232, 0.22700319657741902, -0.16286297902519475 },
    { -0.11153130351133939, -0.03654590970433315, -0.4378248660612199, -0.1770008686935857, -0.08219710153683028, -0.15623294183372397, 0.21584699731913498, 0.014846436994734749, -0.183481617688005, 0.41534338377154145, -0.215118368551597, 0.26946264408584597, -0.23947969721981444, -0.027591960762225795, 0.36336491556246225, 0.11530356139965209, 0.19185544008345237, -0.13836259249174768, -0.03974490357491181, 0.33644537861934937, -0.07038752512590958, 0.16995105116281367, 0.1840128533647159, 0.48105068158513725, -0.15073384408253931, 0.036878056709320935, -0.22461702337229025, 0.2929112386493507, -0.004328059899311238, 0.20901707276601159 },
    { -0.23934312418059459, 0.10502549019783823, -0.12968783999272335, -0.04816169940729206, 0.13210014944639203, 0.02528977192079832, 0.10167764094528525, -0.2131701994675325, 0.07901466263231617, 0.24415254899184188, -0.1595049184012691, 0.2702976823357251, -0.26291262483214145, -0.08617218480374454, -0.2618755620565838, -0.06422806595750293, 0.2815261990782808, 0.10804735049532639, 0.28419709648303615, -0.19761106769479586, 0.25562454180135663, -0.1538179463932407, 0.23195190560948087, -0.172074727440778, -0.15832694196970737, 0.2402575614193585, -0.08999331734014406, -0.24167932090045766, 0.2661344199486839, 0.1663001723738234 },
    { 0.29677218191827376, 0.07979179293423497, -0.20582894071781296, -0.25261207993317714, 0.14511479310712722, 0.057507187336067335, 0.2559724732889351, 0.07812506103310911, -0.21271884781757527, 0.4072329277128418, -0.12648962433202196, -0.0715655409503703, -0.044096076173582355, 0.1874570435912381, 0.026026692891561055, 0.128454895412235, 0.0835525388808061, 0.3321743610351973, 0.22954500390227758, -0.18013955441233565, 0.032632572360007106, 0.39974595853808575, 0.20756977020331327, 0.3273286876446601, 0.02846808457251768, 0.1333169677236548, 0.08733425412107468, 0.10587025365893901, -0.09796539159302856, 0.08997435003159869 },
    { -0.12417863241774234, 0.20934090840681904, 0.2253650295924725, -0.21412924952670312, 0.08989302872418227, 0.15736506074702009, -0.17488658413662833, -0.21489642263900652, 0.1293182236876557, -0.19615314727698877, 0.25555181555822887, -0.18792742744866672, -0.13768246054854355, -0.15453331647829593, -0.21438093571875919, -0.1235633847309628, -0.28818455083159034, -0.20160444650551795, 0.21512087098035965, -0.2907511033229944, -0.030655288757092895, -0.09742824933965535, 0.017456472544646745, 0.00868606823589346, 0.29025631810427927, -0.13106289777957217, -0.10797150436552343, 0.17930268579902822, 0.07138503745423298, -0.22108327571817127 },
    { 1.1597145039682237, 0.825687073700729, 1.2245977570285478, 0.31235534263895487, 0.6856707498744397, 0.9009084619616352, 1.023952748485096, 0.5803168223835706, 0.9285433550692778, 0.42598302398727467, 0.22870230666170807, 0.27362828136995276, 0.07547987271832891, 0.2364410063034239, 0.6611436904680649, 0.8551246217527767, 1.305173817911749, 0.7703826942476336, 0.8435449759176541, 0.9556775050629447, 0.44107192875765006, 0.8083546018499194, 0.6832667556436867, 0.9140694777097693, -0.1674375336521909, 1.005483708873356, -0.39397810291190255, 1.0621008921390895, 0.8294892787045564, 0.6333857219413864 },
    { 0.565040028673453, 0.4700428674621575, 0.15907494921782783, -0.09130024512390301, -0.03205450823367917, 0.43064734573154745, -0.08538088216690261, 0.1601561466643942, 0.3385948912735224, -0.10491140320326407, 0.14139684168888084, -0.17748220877793577, -0.2508191671937589, 0.010550436930621384, 0.534088618276875, 0.4624785266490815, 0.25485199903282196, 0.4575249429345134, 0.27990913742346113, 0.00936441677032269, 0.1953789614622361, 0.09277078459115488, 0.12909838879761118, 0.5852867184214233, 0.053825997380688446, -0.047709169862650676, -0.20515537504775602, 0.03041929726364934, 0.027715022290099582, -0.008992595878292244 },
    { -0.19473018894701086, -0.16162426296900298, 0.3046633563289717, -0.20023825598501252, -0.2006246956296634, 0.252056662180994, -0.024027768341620025, 0.30241287302211783, -0.18015703867892893, 0.2817020041136565, -0.17604383482282276, -0.09103739735155313, 0.3114933015197344, 0.16456903663824768, 0.14446578339541274, -0.2496749826848543, -0.19244846821725858, -0.06588332660280562, 0.17080283053988765, -0.2972973930334035, 0.26290205717490533, -0.26373355264405224, 0.29753553089844803, 0.042293610430926026, 0.28668713021970293, -0.23013235158506118, 0.21833288534297232, -0.30474630554838167, 0.11284691696695882, 0.21582009187041976 },
    { 0.11284694458396519, 0.14062653328099392, 0.05913764675298953, 0.3142770528899397, -0.2977616765929473, -0.25797296003031883, -0.004507977749923724, -0.0055979019705684144, 0.2817084586359677, -0.11453149197052732, -0.04863004163028348, -0.13558936240917366, -0.14018816593548947, 0.17283273513524336, 0.05258865698665256, 0.10504933760447446, -0.14517905799823871, -0.03986310177411044, -0.18039117182388312, -0.24402036785197553, -0.2654313208698342, -0.0008000079862355307, 0.09991159523052198, 0.3034557292542052, 0.2598078135423327, -0.07942004797327819, -0.0051167439330131355, 0.013170003081943991, 0.17247703103897274, 0.14210680410578916 },
    { 0.17091522122727662, -0.07308980489117524, 0.25085458864372584, -0.028177580502548434, 0.18463374754426004, 0.07134318516427236, -0.11453600630099364, 0.09880666454780741, -0.15363744158122958, -0.02130484164637871, 0.17126581411379757, -0.1386207469260473, 0.19959201782355213, 0.10326919226319234, -0.09078145125635806, 0.036903361557232714, 0.1381510213323094, -0.12693926888221127, -0.1573037968892583, -0.25208059000813127, -0.07940430823172359, -0.2721813213931552, -0.29898339813526825, 0.06031494036976194, -0.25977073179190924, 0.26618311177649584, 0.2829055660980534, 0.2572594302200217, 0.1862192825848765, 0.20131994873910405 },
    { -0.1787280908262769, 0.08207631112023449, 0.0909177523119095, -0.24899551641080128, -0.13689514111017384, 0.2833771261258543, 0.14569657823624213, -0.26699842401930307, -0.12620097230693594, -0.09910918327258363, -0.23840152155154115, 0.15399115332491842, -0.03839871485521688, -0.07681594081451981, 0.15880797908696814, 0.31631511555152997, -0.2793245618153402, -0.12094313859944447, 0.08147891347697722, -0.24636701427429242, -0.2231685555638688, -0.29757888540517724, 0.11919483971139586, 0.26669028802123323, -0.25190068699201296, -0.18912898563609923, -0.26924638945411705, -0.16282901974539804, -0.2628772334008575, 0.024852753956434603 }
};
static double WEIGHTS_LAYER_2[30][1] = {
    { 1.0881820279646226 },
    { 1.1075819550286776 },
    { 1.6680091305766411 },
    { 0.41407461826294245 },
    { 0.47259664236484866 },
    { 0.8368778506080645 },
    { 1.1846834703427271 },
    { 0.7346880392691554 },
    { 1.1232743233279918 },
    { 0.23722325390685056 },
    { -0.3953996415340442 },
    { -0.3955617117704561 },
    { 0.6099594084823493 },
    { -0.2534424174700185 },
    { 0.7235647543691982 },
    { 0.8742097904461916 },
    { 1.4174742051694438 },
    { 0.3077337062669579 },
    { 1.044972108306459 },
    { 0.9364844854504633 },
    { 0.1625794861666637 },
    { 0.1708312723627232 },
    { 0.793697887816546 },
    { 0.6538244704281375 },
    { 0.03397384138431334 },
    { 0.9267168153033127 },
    { -0.28552463816468376 },
    { 1.4989415689830963 },
    { 0.25385372670712053 },
    { 1.1491221455987388 }
};
static double BIAS_LAYER_0[30] = {
    -0.30570050114301756, 0.11091339787784078, 0.18013700280108866, 0.05545593376583811, 0.3871159997462818, 0.19428026010375202, 0.1561956192262847, -0.2740535001550802, 0.41227628679113865, -0.3646410862336072, -0.03994278368694901, 0.19175764556186284, -0.4055422164887842, 0.227114490343485, 0.26303009132885197, 0.3118556492719712, 0.4079832977743954, 0.3932665748641308, -0.2677627684684982, 0.4229421974666492, -0.23907630270017266, -0.3887453249915439, 0.00999322243267919, -0.3057280896160635, 0.503215655740644, 0.2603243504448659, 0.2888346523080733, 0.17693585327625905, -0.36437217097849917, -0.050165926698355776
};
static double BIAS_LAYER_1[30] = {
    0.2020020847720606, 0.2024096985020558, 0.07679766485321553, -0.02053001563465934, 0.08281855555718108, 0.24594442150186205, -0.010690537805497747, -0.23567560672936955, 0.297095404584514, -0.0500612731863615, -0.05805764273803833, -0.06527794630227261, 0.2548403883373901, -0.03959456971770136, -0.1339988988525825, 0.2061342070533171, -0.051119595705991776, 0.1168940816142989, 0.06907626967708604, 0.21283744460508566, -0.22962188379574447, 0.29502819745089304, -0.1711605934141886, 0.03854422070108414, -0.34045449500194586, -0.062426341656966464, -0.28327100726657134, -0.04370637718867712, 0.2666894336537694, 0.5115925649049906
};
static double BIAS_LAYER_2[1] = {
    0.8668410415725658
};
T_MODEL_EXECUTION_RESULT calculate_model_down(T_MODEL_INPUT input) {
    double intermediate_result_0[] = { input.input_0 };
    double intermediate_result_1[30];
    for (int i = 0; i < 30; i++) {
        double sum = 0;
        for (int j = 0; j < 1; j++) {
            sum += WEIGHTS_LAYER_0[j][i] * intermediate_result_0[j];
        }
        intermediate_result_1[i] = sigmoid(sum + BIAS_LAYER_0[i]);
    }
    double intermediate_result_2[30];
    for (int i = 0; i < 30; i++) {
        double sum = 0;
        for (int j = 0; j < 30; j++) {
            sum += WEIGHTS_LAYER_1[j][i] * intermediate_result_1[j];
        }
        intermediate_result_2[i] = sigmoid(sum + BIAS_LAYER_1[i]);
    }
    double intermediate_result_3[1];
    for (int i = 0; i < 1; i++) {
        double sum = 0;
        for (int j = 0; j < 30; j++) {
            sum += WEIGHTS_LAYER_2[j][i] * intermediate_result_2[j];
        }
        intermediate_result_3[i] = (sum + BIAS_LAYER_2[i]);
    }
    T_MODEL_EXECUTION_RESULT result;
    result.output_0 = intermediate_result_3[0];
    return result;
}
